'{"levels":[{"inputs":[0.42127517969661965,0.009995493790430743,0,0,0],"outputs":[0,1,0,1,1,1],"biases":[0.5460317983957257,-0.41093302154217853,0.5933742161016102,-0.5889714912785189,-0.06832457551852175,-0.5976556005704529],"weights":[[-0.380536759172805,-0.293604658194907,-0.19744838501113943,0.35238195867578836,0.049718549452740804,0.41987233616990094],[-0.32987688617133715,0.011130000816182345,0.11498862158884826,-0.09172321987762001,0.6200592949784091,-0.21970522904387685],[-0.23112999255853822,-0.16583151388350711,-0.619363870662822,0.1699630940640488,-0.7428660315107979,0.4046219413235923],[-0.7869438049617687,-0.26739322693060064,-0.1887426121919713,0.532342709773819,-0.6338134964561932,0.7575582042284039],[0.025544152813070653,-0.5539666212981207,-0.16189525333075466,-0.6074688766338009,-0.11912277803879524,-0.04840062459126371]]},{"inputs":[0,1,0,1,1,1],"outputs":[1,0,0,0],"biases":[-0.5338915255901098,0.26475308737161035,-0.3986854586738237,-0.14716845459615654],"weights":[[0.35242603007501233,-0.05153616218018606,-0.5868277506013524,0.5297025768976402],[0.5124548734475592,-0.022959479296772084,-0.13116727982406104,-0.5969389185036404],[-0.03698575888540212,0.117538846798533,0.06635120290585211,-0.11829356751110302],[0.6206889422097714,-0.05069856577802765,-0.4207800694114353,-0.4456609298752289],[0.3100953845278555,-0.7137784344150188,0.4697584403803654,0.5074360863024431],[-0.17968044853528245,0.5574695613487795,-0.3898977822329665,0.1760495901185355]]}]}'